-34 9 41 -66 -127
-70 8 57 27 -73
5 39 -30 -17 33
47 -23 -1 -23 -1
39 16 -19 4 12
-26 -127 -46 91 35
10 -115 14 58 48
62 0 32 -38 20
47 -14 42 -17 -48
16 -2 0 -26 -41
61 75 -16 44 28
51 3 -20 29 -24
4 47 -26 -16 -4
46 39 -67 34 -9
10 56 15 -46 -127
-12 68 55 -73 -127
-11 102 61 1 -125
7 94 -43 17 -25
78 -9 -17 18 8
57 1 -23 -27 -52
25 -13 58 -28 13
-39 23 -20 7 45
19 -56 -44 45 43
-84 -97 54 127 -18
-104 -13 43 60 -7
-46 -7 42 -106 25
0 -127 -7 4 48
22 36 85 -76 -64
85 17 -126 -90 70
86 38 54 -66 97
16 50 80 -109 -5
-16 9 127 -95 -37
-4 -21 53 -89 51
17 23 89 -86 -18
-45 5 75 -11 -20
-83 -92 85 48 77
-59 -108 75 35 49
41 -127 78 -7 68
-86 -101 52 26 126
10 -80 -102 -44 -13
-4 -3 76 67 107
31 59 65 23 26
26 51 22 -57 -30
14 -31 13 -63 -60
-21 -38 -94 -127 -29
-61 24 38 4 8
-46 23 38 -32 -46
-35 108 -16 22 22
-113 112 -37 -21 -11
-127 109 15 5 21
-18 -99 -32 -10 15
-84 -127 -66 1 11
-3 -23 -2 7 -1
9 4 11 -1 0
17 3 -3 -9 -4
40 -75 39 -10 -17
25 -97 93 19 7
-4 -97 81 18 32
-36 -105 100 37 -4
15 -127 78 30 -23
16 -9 -70 -127 5
-8 35 11 -87 -65
-20 -3 31 -8 -34
-22 -11 44 10 -25
20 5 40 8 -21
-43 -45 -21 31 20
38 77 -32 73 39
67 120 40 -53 25
4 -48 4 29 8
-24 -109 -127 -72 16
-4 1 2 4 5
13 15 11 9 4
11 6 -5 -8 -1
9 0 -31 -49 -12
-9 -6 -59 -127 -32
-55 -26 9 70 4
48 20 70 90 -127
73 47 -14 16 -103
-74 -6 -5 78 9
-14 -102 -30 48 1
-53 -76 -127 -89 -68
59 16 -42 -53 20
2 56 67 -10 -5
7 -3 23 63 48
8 49 94 36 14
40 68 50 24 69
-28 74 76 -3 -33
-65 -104 -27 -46 -55
-54 -125 -127 -17 17
84 39 19 -26 8
-73 -127 -52 -26 -6
-21 -71 -28 12 21
4 10 -3 10 11
-16 1 1 14 -8
0 6 0 21 11
38 29 -65 49 -21
17 -22 -46 73 -25
48 -18 -114 42 29
34 -19 -88 3 66
32 10 -127 48 31
-127 4 11 124 50
-119 -77 82 94 -31
124 -51 -34 -65 -6
61 11 79 -92 -39
-35 12 81 -2 -57
-61 -87 -31 127 -107
-114 -63 -40 108 -68
-20 43 -53 100 -16
-22 52 65 71 -70
-10 51 97 -43 -77
-54 67 -81 -52 107
-68 59 -30 -102 94
-36 127 -54 -106 40
52 89 -22 -59 -7
50 65 -41 -40 19
76 -23 3 -71 -79
19 49 -4 64 63
127 -11 28 -86 -63
-3 -4 -34 -55 -4
50 -58 38 -34 44
-40 -89 15 -65 -45
-54 -37 9 -49 -1
-108 -5 54 -28 23
-122 42 26 24 40
-127 100 60 -15 47
66 69 -12 74 22
59 -55 -24 55 -49
-12 -61 14 -32 -16
-17 43 31 -77 47
-82 -49 -65 -127 20
-7 86 103 106 127
-78 57 65 47 27
-38 -31 -5 -20 15
25 24 15 38 58
14 55 -72 -19 -71
-53 -124 -73 -44 93
42 7 32 -4 127
-50 -35 33 -30 91
-25 -15 15 7 94
-1 -48 -52 -63 91
127 3 -101 -50 -3
77 60 -21 -65 -15
10 51 -45 34 15
53 33 -49 -11 -12
12 20 -56 5 -27
22 1 73 102 -7
56 50 37 77 68
-75 21 -5 69 19
-38 -30 -74 52 -7
-66 -65 -127 23 23
77 93 84 -13 1
16 -1 44 30 9
-15 42 27 -27 -21
-34 -65 -55 26 -11
-46 -127 -30 28 -31
-40 4 -46 -124 -127
-68 -45 23 35 -72
21 12 -32 42 31
47 47 49 61 65
41 -18 15 46 48
