-0.11190058 0.02968932 0.13516179 -0.21755771 -0.41798258
-0.23117375 0.024694346 0.18612708 0.088097766 -0.24172066
0.015675344 0.130002 -0.09754552 -0.056957517 0.10985629
0.15383062 -0.07598737 -0.0029606253 -0.07511681 -0.004739197
0.12786986 0.054155402 -0.06213173 0.012242096 0.03846057
-0.08372659 -0.4048968 -0.14509556 0.2888486 0.11195535
0.03263052 -0.3660425 0.04320195 0.18651113 0.15208447
0.19830011 -0.0006259416 0.103560284 -0.12260104 0.06292823
0.1503309 -0.046225283 0.13251118 -0.055122953 -0.15435643
0.0509697 -0.0056461445 -0.0005746225 -0.08225381 -0.1304716
0.09390412 0.11601211 -0.025397485 0.06821179 0.043826718
0.07938875 0.0053090937 -0.03137283 0.045412242 -0.037514057
0.00663864 0.07249676 -0.040286675 -0.025254158 -0.0061074784
0.070999704 0.059625775 -0.10386629 0.05323364 -0.014663581
0.014970234 0.086222164 0.022564847 -0.0710498 -0.19603834
-0.027507192 0.14945833 0.1214036 -0.16056964 -0.28052378
-0.025150582 0.22501636 0.13603026 0.002716337 -0.2769847
0.014613179 0.20828375 -0.09412666 0.03784284 -0.05495079
0.1718149 -0.020428516 -0.038166553 0.038750518 0.018508274
0.12512435 0.002282356 -0.050405752 -0.060222417 -0.11418971
0.05486808 -0.027739959 0.12534304 -0.05994866 0.029105041
-0.08427018 0.049955413 -0.042838212 0.014144698 0.097726084
0.04161901 -0.12074405 -0.09410539 0.09788319 0.09217224
-0.18202403 -0.21061888 0.117177844 0.2743645 -0.03828507
-0.2247738 -0.028254889 0.09301272 0.1285593 -0.015845755
-0.07918215 -0.011610322 0.07245282 -0.18478635 0.042891096
0.0006166938 -0.22089666 -0.012931231 0.00761238 0.08275474
0.038442653 0.06296697 0.14747679 -0.132881 -0.11115393
0.14751257 0.029920006 -0.2189073 -0.15588066 0.120962664
0.1488824 0.06659857 0.09447071 -0.115078814 0.16822508
0.04087798 0.12759227 0.20485742 -0.28104416 -0.012604062
-0.04116451 0.023906821 0.32711187 -0.24437377 -0.09558696
-0.010582317 -0.054242667 0.13745575 -0.22918238 0.13131379
0.044655398 0.059073143 0.22998379 -0.22105584 -0.04587454
-0.11590874 0.011884918 0.19428065 -0.029253285 -0.05109418
-0.112014145 -0.12500447 0.115457065 0.06566868 0.10430083
-0.08050854 -0.1462835 0.10146727 0.047065992 0.06705781
0.054916874 -0.17257412 0.10546117 -0.009763459 0.09202971
-0.11718884 -0.13652846 0.07077045 0.035204787 0.17041421
0.013107403 -0.10820051 -0.13794011 -0.059331212 -0.017361252
-0.009132007 -0.006834783 0.19672024 0.17409426 0.2784293
0.079562284 0.153327 0.16955425 0.058922347 0.067359105
0.06806666 0.13177936 0.05732147 -0.14711234 -0.0786067
0.03662871 -0.08133344 0.033133533 -0.1632516 -0.15422936
-0.053423554 -0.09937823 -0.24441877 -0.32873896 -0.07441106
-0.13879769 0.055334646 0.08780495 0.008536271 0.018210685
-0.1042591 0.052626956 0.0864708 -0.072686434 -0.10589921
-0.079848684 0.24704829 -0.03572851 0.05026719 0.05083235
-0.25921738 0.25506988 -0.08556144 -0.04837015 -0.025301881
-0.29033926 0.24804616 0.033619773 0.010558187 0.047273807
-0.25693735 -1.4451015 -0.46183679 -0.14722814 0.22253178
-1.2358888 -1.8585644 -0.9718518 0.00962818 0.16781698
-0.05068351 -0.34361702 -0.029563976 0.101052 -0.008378563
0.1258109 0.062407903 0.16616084 -0.00830441 0.0037255601
0.24387062 0.037650824 -0.04809556 -0.12964128 -0.06512379
0.08251042 -0.1558751 0.08161147 -0.020285664 -0.034181207
0.052711867 -0.20053491 0.19188847 0.03861257 0.013808485
-0.009166139 -0.20069528 0.16776396 0.037457645 0.06697595
-0.074571826 -0.21846403 0.20625788 0.076417945 -0.0081128515
0.030257473 -0.2631185 0.16095845 0.06266248 -0.04782224
0.10085674 -0.056975685 -0.43813634 -0.79570496 0.03203713
-0.046984497 0.21666317 0.0716641 -0.5446295 -0.40553346
-0.122853346 -0.018558731 0.19589706 -0.05192172 -0.2114996
-0.13897325 -0.06874543 0.27520075 0.06200939 -0.15748039
0.122979365 0.03302923 0.24901916 0.047586735 -0.12926984
-0.10192195 -0.10722086 -0.049688313 0.07404502 0.04812531
0.09018485 0.1826583 -0.07526355 0.17461358 0.09183321
0.15900615 0.28667125 0.095291704 -0.1256174 0.060279813
0.010442872 -0.11468831 0.00984791 0.07023275 0.01898978
-0.05610412 -0.26085782 -0.30239606 -0.17258486 0.03913107
-0.058057446 0.016008966 0.02589478 0.05583536 0.07938923
0.18687539 0.22602606 0.15486282 0.12757057 0.06377992
0.16484651 0.08128455 -0.0734314 -0.11325967 -0.008163001
0.12546445 0.0026409174 -0.44993916 -0.72998005 -0.17893931
-0.13520782 -0.08960541 -0.8747775 -1.8724235 -0.47257134
-0.13582815 -0.065388024 0.02239915 0.17423911 0.010317124
0.12004008 0.048732854 0.17485176 0.2224224 -0.31505716
0.18190469 0.11667772 -0.034266114 0.03874921 -0.25556445
-0.18470943 -0.013715436 -0.011270576 0.19299468 0.022260025
-0.033709712 -0.25300187 -0.07439318 0.12030271 0.0026466507
-0.13858095 -0.19773264 -0.3303573 -0.23179522 -0.17610347
0.15422961 0.042086568 -0.10887341 -0.13874212 0.050897002
0.004429015 0.14549321 0.17388664 -0.026069798 -0.012146748
0.01902142 -0.008692447 0.06042772 0.1634145 0.12428168
0.021574425 0.12675841 0.24384871 0.09470969 0.035142418
0.11131642 0.18884182 0.13843769 0.06733059 0.19247873
-0.07877701 0.20676023 0.2122647 -0.0069984472 -0.0933131
-0.18297786 -0.29105362 -0.075949386 -0.12850015 -0.15329798
-0.15041979 -0.34869716 -0.3550551 -0.04889694 0.047409873
0.23481755 0.107994705 0.054191288 -0.07300087 0.022725442
-0.67506504 -1.1807445 -0.481047 -0.24129881 -0.056633275
-0.19803971 -0.6615898 -0.2567341 0.111216135 0.19873734
0.04111253 0.09027648 -0.026775494 0.09726612 0.09989601
-0.14852954 0.005306693 0.0056467056 0.1288728 -0.073543094
-0.0044957707 0.056360397 -0.0015821527 0.19085148 0.1017984
0.10271313 0.07761585 -0.17465152 0.13026804 -0.056656316
0.045702793 -0.060103606 -0.123958744 0.19633754 -0.06597142
0.12753394 -0.04921069 -0.30716205 0.11271983 0.07876619
0.0907703 -0.050047643 -0.23509666 0.007937318 0.17751698
0.086406045 0.028044904 -0.3410078 0.1300899 0.084191844
-0.26302513 0.007463323 0.022670526 0.2569216 0.10392629
-0.24754505 -0.15876104 0.16891858 0.1954796 -0.06479173
0.25599286 -0.105293036 -0.07090605 -0.13424864 -0.012428592
0.12587325 0.021779172 0.16367163 -0.190938 -0.08066843
-0.0727361 0.02576525 0.16878559 -0.0047532204 -0.11903031
-0.12285544 -0.17473651 -0.061563134 0.25582352 -0.21585014
-0.22954586 -0.12605627 -0.08120816 0.21823388 -0.13733104
-0.04056336 0.08658583 -0.106055975 0.20072067 -0.03166451
-0.044610623 0.10531643 0.13055134 0.14280514 -0.14064357
-0.019888103 0.10263052 0.19510068 -0.086292304 -0.15433842
-0.11740111 0.14603113 -0.1752879 -0.11264283 0.232789
-0.14790642 0.12850463 -0.06609022 -0.22197634 0.20500633
-0.07833216 0.27682918 -0.1185148 -0.23176405 0.08779364
0.11360196 0.19463089 -0.048875887 -0.12800908 -0.014828448
0.109060414 0.14195314 -0.089539774 -0.0864768 0.040717095
0.1400506 -0.042055186 0.005009414 -0.13211483 -0.14718929
0.03492077 0.09158135 -0.006570443 0.11936262 0.116310544
0.23590353 -0.020226326 0.05226787 -0.15919745 -0.11763517
-0.0052064885 -0.006687198 -0.06269067 -0.10219675 -0.0069824895
0.09268893 -0.10692448 0.07066756 -0.062343568 0.08188831
-0.12039866 -0.2702937 0.044514548 -0.19670378 -0.13813032
-0.16569445 -0.11257909 0.02719937 -0.14949308 -0.0024270162
-0.32749277 -0.015040434 0.16346756 -0.08484476 0.06907742
-0.37151614 0.1293023 0.080130376 0.073915884 0.12141256
-0.3868662 0.3034332 0.18388426 -0.0450656 0.14332587
0.1365407 0.14360312 -0.02466467 0.15399738 0.046460964
0.123361066 -0.11341756 -0.050214913 0.11478695 -0.101659454
-0.024000105 -0.12693198 0.028620392 -0.066682115 -0.033861693
-0.03510938 0.090047285 0.06533768 -0.15963438 0.09864849
-0.16954793 -0.10084607 -0.13427764 -0.26389077 0.04052721
-0.007513624 0.08795811 0.105606675 0.10857121 0.12992793
-0.079509266 0.05815523 0.0666599 0.048165124 0.0273028
-0.03920974 -0.03156268 -0.004690891 -0.020776715 0.015150108
0.025521042 0.024834245 0.01565443 0.039246738 0.05917883
0.014129457 0.056456793 -0.074196726 -0.019482583 -0.07277488
-0.10728428 -0.25174063 -0.14800951 -0.090303645 0.188914
0.08476831 0.014898797 0.063998215 -0.008642815 0.25796548
-0.10066716 -0.07164999 0.06715166 -0.061502602 0.18544327
-0.050160453 -0.029651588 0.030655125 0.013503845 0.19053595
-0.0028835589 -0.09677234 -0.10663347 -0.12779057 0.1853929
0.33803022 0.00725423 -0.26894805 -0.13396336 -0.0070627052
0.20359656 0.15822758 -0.05479696 -0.17203972 -0.03907372
0.025417035 0.13524513 -0.11856255 0.089084685 0.039054286
0.13999605 0.08892854 -0.12963435 -0.028802421 -0.03129141
0.032380916 0.05349275 -0.15016522 0.012550147 -0.07244639
0.029985871 0.0017295225 0.09910293 0.13858321 -0.009153804
0.07577588 0.06764932 0.050086074 0.10436348 0.09227746
-0.100873284 0.028690627 -0.0067299665 0.09402288 0.02578143
-0.05186447 -0.04057796 -0.09945058 0.07083649 -0.008853816
-0.08984957 -0.08850765 -0.17164601 0.03163571 0.030485217
0.21153964 0.25332072 0.22896339 -0.036232453 0.002465877
0.043099854 -0.0014094072 0.12119035 0.0810389 0.025836704
-0.041580636 0.11460724 0.0746326 -0.074766 -0.057624903
-0.09369157 -0.1782011 -0.14996855 0.070643984 -0.028891027
-0.12561534 -0.3477524 -0.08253394 0.0778356 -0.083504856
-0.10034536 0.009825392 -0.11434746 -0.30772918 -0.3145542
-0.16895124 -0.11088663 0.05666055 0.087051824 -0.17924735
0.052739546 0.029968677 -0.079632744 0.10335567 0.076457985
0.11555582 0.1177364 0.120931946 0.15154655 0.16063248
0.10044243 -0.044016577 0.03721091 0.11280774 0.12002646
