-0.111918084 0.029625375 0.13496004 -0.21725276 -0.41804698
-0.23041959 0.026333667 0.18762738 0.08887613 -0.24029471
0.016458541 0.12837663 -0.098751254 -0.055959042 0.10862638
0.1547103 -0.07570929 -0.0032917084 -0.07570929 -0.0032917084
0.12837663 0.052667335 -0.06254246 0.013166834 0.0395005
-0.08291034 -0.40498513 -0.14668752 0.2901862 0.11161007
0.031888593 -0.3667188 0.044644028 0.18495384 0.15306523
0.19770928 0.0 0.102043495 -0.12117665 0.063777186
0.14987639 -0.044644028 0.13393208 -0.054210607 -0.15306523
0.051021747 -0.0063777184 0.0 -0.08291034 -0.13074322
0.094221465 0.11584607 -0.024713827 0.06796303 0.043249197
0.078775324 0.0046338425 -0.030892285 0.04479381 -0.03707074
0.006178457 0.07259687 -0.04015997 -0.024713827 -0.006178457
0.07105225 0.060239956 -0.10348915 0.05251688 -0.013901528
0.015446142 0.086498395 0.023169214 -0.07105225 -0.19616601
-0.026545458 0.15042426 0.12166668 -0.16148487 -0.28093943
-0.024333335 0.22563638 0.1349394 0.0022121214 -0.2765152
0.01548485 0.20793942 -0.09512122 0.037606064 -0.055303033
0.17254546 -0.019909093 -0.037606064 0.039818186 0.017696971
0.12609091 0.0022121214 -0.050878793 -0.059727278 -0.11503031
0.054008193 -0.028084261 0.125299 -0.060489178 0.028084261
-0.08425278 0.04968754 -0.043206554 0.015122294 0.09721475
0.04104623 -0.120978355 -0.09505442 0.09721475 0.09289409
-0.18146753 -0.2095518 0.1166577 0.2743616 -0.0388859
-0.22467409 -0.028084261 0.09289409 0.12961966 -0.015122294
-0.08000566 -0.012174775 0.07304865 -0.18436088 0.04348134
0.0 -0.2208852 -0.012174775 0.006957014 0.08348417
0.038263578 0.06261313 0.14783655 -0.13218327 -0.111312225
0.14783655 0.02956731 -0.21914594 -0.15653282 0.12174775
0.1495758 0.066091634 0.09391969 -0.11479073 0.1687076
0.041193876 0.12873086 0.20596938 -0.28063327 -0.012873086
-0.041193876 0.023171555 0.3269764 -0.24458864 -0.095260836
-0.010298469 -0.054066963 0.13645472 -0.22914094 0.13130549
0.043768495 0.059216198 0.22914094 -0.22141708 -0.04634311
-0.11585778 0.012873086 0.1930963 -0.02832079 -0.051492345
-0.112515435 -0.1247159 0.11522665 0.06506917 0.10438179
-0.07998085 -0.14640562 0.10167057 0.047446266 0.06642477
0.055579912 -0.17216218 0.105737396 -0.009489253 0.09218132
-0.11658226 -0.13691637 0.0704916 0.0352458 0.17080656
0.013556076 -0.10844861 -0.13827197 -0.059646737 -0.0176229
-0.01036172 -0.00777129 0.19687268 0.1735588 0.277176
0.080303326 0.15283537 0.16837795 0.05957989 0.06735118
0.06735118 0.13211192 0.05698946 -0.1476545 -0.0777129
0.03626602 -0.080303326 0.03367559 -0.16319709 -0.1554258
-0.05439903 -0.09843634 -0.24350041 -0.32898462 -0.07512247
-0.13935074 0.05482652 0.08680866 0.009137753 0.018275507
-0.105084166 0.052542083 0.08680866 -0.07310203 -0.105084166
-0.07995534 0.24671935 -0.036551014 0.050257646 0.050257646
-0.25814155 0.2558571 -0.08452422 -0.047973204 -0.025128823
-0.29012367 0.24900378 0.034266576 0.011422192 0.047973204
-0.2633552 -1.4484535 -0.468187 -0.14630844 0.21946266
-1.2289909 -1.8581172 -0.9656357 0.014630844 0.16093928
-0.043892533 -0.3365094 -0.029261688 0.102415904 -0.014630844
0.1316776 0.058523376 0.16093928 -0.014630844 0.0
0.24872434 0.043892533 -0.043892533 -0.1316776 -0.058523376
0.08283229 -0.15531056 0.080761485 -0.020708073 -0.035203725
0.051770184 -0.20086832 0.19258508 0.03934534 0.014495652
-0.00828323 -0.20086832 0.1677354 0.037274532 0.06626584
-0.074549064 -0.21743478 0.20708074 0.07661987 -0.00828323
0.031062111 -0.26299253 0.16152297 0.062124223 -0.04762857
0.100225165 -0.056376655 -0.4384851 -0.79553723 0.031320363
-0.050112583 0.21924254 0.0689048 -0.5449743 -0.40716472
-0.12528145 -0.01879222 0.19418626 -0.050112583 -0.21297848
-0.1378096 -0.0689048 0.2756192 0.06264073 -0.15660182
0.12528145 0.031320363 0.2505629 0.050112583 -0.13154553
-0.10244476 -0.10720963 -0.050031163 0.07385553 0.047648728
0.09053258 0.1834476 -0.07623796 0.17391784 0.09291501
0.15962324 0.28589237 0.095297456 -0.12626912 0.059560906
0.009529745 -0.11435694 0.009529745 0.06909065 0.01905949
-0.05717847 -0.25968555 -0.30256942 -0.17153542 0.03811898
-0.05899326 0.014748315 0.02949663 0.05899326 0.07374158
0.1917281 0.22122473 0.16223148 0.13273484 0.05899326
0.16223148 0.08848989 -0.07374158 -0.11798652 -0.014748315
0.13273484 0.0 -0.4571978 -0.72266746 -0.17697978
-0.13273484 -0.08848989 -0.8701506 -1.873036 -0.4719461
-0.13661142 -0.06457994 0.022354595 0.17386907 0.009935375
0.1192245 0.049676877 0.17386907 0.22354594 -0.31544816
0.1813206 0.11674066 -0.03477381 0.0397415 -0.25583592
-0.18380444 -0.014903063 -0.012419219 0.19373982 0.022354595
-0.03477381 -0.25335208 -0.07451531 0.1192245 0.0024838438
-0.13782705 -0.1976388 -0.3302648 -0.23144542 -0.1768347
0.15343012 0.041608166 -0.109221436 -0.13782705 0.05201021
0.0052010207 0.14562859 0.1742342 -0.026005104 -0.013002552
0.018203573 -0.007801531 0.059811737 0.16383216 0.124824494
0.020804083 0.12742501 0.24444798 0.09361837 0.036407147
0.11180894 0.1900752 0.13976118 0.06708537 0.19287042
-0.07826626 0.20684655 0.21243699 -0.008385671 -0.09224238
-0.18168953 -0.29070327 -0.075471036 -0.12858029 -0.15373729
-0.15094207 -0.34940296 -0.3549934 -0.0475188 0.0475188
0.23479879 0.10901372 0.053109247 -0.07267582 0.022361789
-0.6785153 -1.1804308 -0.483326 -0.241663 -0.055768386
-0.19518934 -0.6599259 -0.26025245 0.11153677 0.19518934
0.037178922 0.092947304 -0.027884193 0.092947304 0.10224204
-0.14871569 0.009294731 0.009294731 0.13012622 -0.074357845
0.0 0.055768386 0.0 0.19518934 0.10224204
0.10199205 0.07783604 -0.17446008 0.13151607 -0.05636403
0.045628022 -0.05904803 -0.12346406 0.1959321 -0.06710003
0.12883207 -0.048312023 -0.30597615 0.11272806 0.07783604
0.091256045 -0.050996024 -0.23619212 0.0080520045 0.1771441
0.08588804 0.026840013 -0.34086818 0.12883207 0.08320404
-0.26310202 0.008286678 0.022788364 0.25688702 0.10358348
-0.24652867 -0.15951855 0.1698769 0.19473694 -0.064221755
0.25688702 -0.10565515 -0.07043677 -0.13465852 -0.012430018
0.12637185 0.022788364 0.1636619 -0.1905936 -0.08079511
-0.07250843 0.024860036 0.16780524 -0.004143339 -0.11808517
-0.12303085 -0.17547023 -0.06252387 0.2561462 -0.21580821
-0.22992651 -0.12706465 -0.08067597 0.21782511 -0.13714914
-0.040337984 0.086726665 -0.106895655 0.20168991 -0.032270387
-0.044371784 0.10487875 0.13109845 0.14319985 -0.14118294
-0.020168992 0.10286186 0.19563922 -0.086726665 -0.15530124
-0.11755295 0.14585273 -0.17632942 -0.11319914 0.23292899
-0.14802964 0.12843747 -0.06530719 -0.22204445 0.20462921
-0.078368634 0.2764671 -0.11755295 -0.23075208 0.08707626
0.11319914 0.19374467 -0.04789194 -0.12843747 -0.015238345
0.10884532 0.14149892 -0.089253165 -0.08707626 0.041361224
0.14082466 -0.04261799 0.0055588684 -0.13155988 -0.14638354
0.035206165 0.090794854 -0.0074118245 0.11858919 0.11673623
0.23532543 -0.020382518 0.051882774 -0.15935422 -0.11673623
-0.0055588684 -0.0074118245 -0.06300051 -0.10191259 -0.0074118245
0.092647806 -0.10747146 0.07041233 -0.06300051 0.08153007
-0.12179644 -0.27099708 0.045673665 -0.19791922 -0.13702099
-0.1644252 -0.112661704 0.027404198 -0.14920063 -0.003044911
-0.3288504 -0.015224555 0.1644252 -0.08525751 0.070032954
-0.37147912 0.12788627 0.07916769 0.073077865 0.12179644
-0.3867037 0.3044911 0.18269466 -0.045673665 0.14311081
0.13708335 0.1433144 -0.024924245 0.15369952 0.04569445
0.12254421 -0.114236124 -0.04984849 0.114236124 -0.101774
-0.024924245 -0.12669826 0.029078286 -0.066464655 -0.033232328
-0.03530935 0.08931188 0.064387634 -0.15993057 0.097619966
-0.17031568 -0.101774 -0.13500632 -0.2637816 0.04154041
-0.00717151 0.088107124 0.105523646 0.108597144 0.13011168
-0.07991111 0.058396578 0.06659259 0.048151568 0.027661538
-0.038931053 -0.031759545 -0.005122507 -0.020490028 0.015367521
0.025612535 0.024588034 0.015367521 0.038931053 0.05942108
0.01434302 0.05634758 -0.0737641 -0.019465527 -0.0727396
-0.10767815 -0.25192624 -0.1483114 -0.08939318 0.18894468
0.08532985 0.014221642 0.06501322 -0.008126653 0.25802124
-0.10158316 -0.071108215 0.067044884 -0.060949896 0.18488134
-0.05079158 -0.030474948 0.030474948 0.014221642 0.19097634
-0.0020316632 -0.09751983 -0.10564648 -0.12799478 0.18488134
0.33755487 0.007973737 -0.26844916 -0.13289562 -0.007973737
0.20465925 0.15947475 -0.055816162 -0.1727643 -0.039868686
0.026579125 0.13555354 -0.11960606 0.09036902 0.039868686
0.14086936 0.08771111 -0.13023771 -0.029237038 -0.03189495
0.03189495 0.05315825 -0.1488431 0.013289562 -0.071763635
0.029765666 0.0013529848 0.09876789 0.13800445 -0.009470894
0.07576715 0.06764924 0.050060436 0.10417983 0.092002966
-0.10147386 0.028412681 -0.006764924 0.09335595 0.025706712
-0.051413424 -0.040589545 -0.10012087 0.07035521 -0.009470894
-0.089297 -0.087944016 -0.17182907 0.03111865 0.03111865
0.21074823 0.25454006 0.22990716 -0.03558087 0.0027369899
0.043791838 -0.0027369899 0.12042756 0.0821097 0.024632908
-0.04105485 0.11495358 0.073898725 -0.073898725 -0.05747679
-0.093057655 -0.17790434 -0.15053444 0.07116174 -0.03010689
-0.12590154 -0.34759772 -0.0821097 0.07663572 -0.08484668
-0.0991686 0.00991686 -0.114043884 -0.30742264 -0.31486028
-0.16858661 -0.11156467 0.057021942 0.086772524 -0.17850347
0.052063514 0.029750578 -0.07933488 0.10412703 0.07685566
0.1165231 0.1165231 0.12148153 0.15123211 0.16114897
0.10164781 -0.044625867 0.037188224 0.114043884 0.11900231
